// Logistic Regression model for Arduino
#ifndef LOGREG_MODEL_H
#define LOGREG_MODEL_H

const int n_features = 5000;

const int weights[n_features] = {-177, 795, -584, 701, -574, -461, -64, 99, -148, -409, 888, -770, 375, -763, 122, -806, 222, 360, -1428, 331, 220, -121, 8, -353, 52, 395, -364, -99, 538, 289, -81, 1123, -131, -315, -323, -2114, -185, 85, 222, -43, 448, 813, -508, -174, 2, -604, 1004, 78, -238, 357, -510, -292, -42, -905, -184, 121, -191, -664, -183, 213, 414, -847, -40, 270, -733, 545, -70, -104, 233, 633, -90, 73, -696, 54, 182, -514, -193, 388, 964, 772, 760, -46, 952, -610, -995, 26, -713, 1473, 72, -360, -270, 42, 141, 37, 587, 46, 580, -103, 170, -133, 630, -494, -501, 728, 551, -801, -105, -646, -49, -590, -127, -401, 188, -962, -151, -321, 492, -58, 462, -398, -56, -164, -796, 431, -580, -611, -932, 654, 392, 28, 477, -597, -63, 341, -217, -569, -1480, -183, 258, -604, -340, 1647, 298, -1199, -1141, 3412, 213, 262, 233, -119, 131, 451, 206, -387, -861, 30, -604, 210, 211, 41, -324, 564, 776, 1284, 476, -659, 536, 191, -325, 835, -97, 399, 149, 603, -620, -93, -3355, -833, -171, -162, -320, -61, -145, -572, -445, -1152, 104, -578, 621, 776, -153, 37, 32, 254, -288, -2201, -158, 744, -559, 530, -1091, -411, -1729, -1812, -729, -1161, -135, 502, -163, 2348, 540, 743, 572, 834, -503, -339, 156, -681, 68, -526, -534, -576, -100, 212, -4, 725, -297, 139, -288, 180, 565, -113, 347, -1052, -206, -1275, -688, -460, -1531, -98, -321, -27, 374, -368, -280, -115, -440, 389, 136, -661, 294, 1079, 591, 988, 2027, -937, 21, -362, -2573, -288, 830, 536, 653, -111, -839, -409, -255, -73, -1132, 940, 579, 205, 653, 344, 656, -356, -743, 1396, 22, -545, -2873, -820, -6320, -928, 196, -339, 444, 308, 862, -547, 482, 1605, -401, 292, 62, -107, -147, 303, -138, -6219, -713, -314, -271, -941, -297, 299, -981, -216, 964, 93, -2989, -65, 314, -196, 841, 846, -1506, -33, 26, 121, -664, 373, -226, -513, 63, 704, -1382, -219, -720, 55, -78, -462, 847, 311, -9, -474, -195, -1623, -583, -935, 433, 177, 180, 399, 65, 173, -786, -412, 180, -101, 76, 1, -56, 277, 3495, 675, 303, 430, -725, -159, 48, 62, -591, -266, 559, 917, 381, -673, -911, -567, 39, 109, -293, -194, -195, -1085, -153, -349, -289, 636, 172, 325, 20, 126, -332, 111, -302, 4128, -117, 837, -415, 1658, 313, 381, 186, -473, 494, 9, -116, 365, 38, -2091, -210, -258, -4, 381, -70, -449, -532, 351, -59, 641, -301, 37, -687, -25, 1157, -299, -459, -236, 204, -132, 32, 2482, -560, -67, 320, -1122, -660, 591, 220, 282, -1337, -859, -353, 860, -1008, -1586, -383, 344, -931, 505, -522, 658, 338, 651, 120, 1472, -640, 92, -839, -234, 71, -608, 203, 230, 270, -586, -664, -15, 8, 31, -157, -418, 6, -58, -994, -513, -498, 923, 117, 377, -1006, 42, -776, -172, -89, -5151, -677, -1250, 606, -650, 593, -2373, -45, -137, 775, 1511, 79, -349, -828, 66, 457, 986, -898, 407, 181, 526, -1474, -7, -428, 107, 1049, 733, 4, 76, 404, 1155, 104, 234, 862, -60, 175, -330, -644, -319, 269, 3322, 1241, 467, 169, 38, -564, -81, -486, 138, -83, 390, -410, 240, 508, 743, 849, 736, -67, 217, 941, 999, -325, -470, 976, -484, 46, 360, -285, 342, 911, 801, 590, -414, 67, -287, 470, 314, 583, -1744, -298, -62, 484, -58, 378, -237, -447, 905, 661, 168, 435, -297, 22, 151, -555, 892, -280, -332, -98, -56, -157, 192, -192, 211, 428, 423, -199, -941, -176, 115, 183, 583, 214, 192, -659, 214, 551, 385, 269, 109, -776, 327, 109, -17, -584, 783, 1628, -991, 249, 264, -1067, -842, -1125, -473, 676, 118, -192, -907, 260, 757, 684, 246, -644, 1403, 952, 42, -441, -122, -531, 97, -191, 270, 675, -172, -331, 1251, 184, 52, 830, -76, -198, -340, -383, 1412, 273, 130, -9, 190, 434, -776, 193, -593, 370, -704, 363, 343, -80, 1456, 641, 332, -1130, 23, 323, 670, -117, -44, 771, 852, -21, -1093, 200, -909, 201, -640, 219, -926, 198, 375, 70, -497, 114, 526, -93, -146, -208, 9, -83, 233, -870, 695, -136, 1102, -473, 430, -1893, -691, 796, 300, 663, -1275, 4, -168, 1077, -545, -199, -80, -1292, -67, 658, -258, 624, 79, -532, 1370, 293, 274, 713, -828, -214, 289, 53, -364, -478, -178, -221, -535, 608, -1921, -1020, 12, -372, -43, 255, -199, -277, -416, 43, 625, 709, -405, -105, 178, -285, 26, 903, 510, 246, 19, -470, 403, 89, 58, 28, 2144, 105, -783, 584, -68, -29, 368, -3, 752, -2197, 372, -153, -1, 216, -14, 350, -18, 5, -256, -695, 536, 247, 169, 153, -497, 59, -423, -410, -721, -706, -68, -731, -324, -144, 200, -598, -557, -267, 423, 431, 663, 605, 309, 256, -799, 725, 661, 917, 505, 431, 942, -55, 204, 177, -54, -72, -249, -366, 64, 612, 512, -350, -35, -903, 786, 127, 534, -8, -272, 169, 857, 91, 667, -29, -438, -57, -54, 546, -373, -380, 583, 80, 585, 191, 863, -537, -387, 51, 730, 1350, -1373, 80, -607, 1251, 205, 281, -547, 413, 406, -245, -675, 345, -1159, -516, 405, -376, -366, -123, 31, -419, -669, 546, 330, -187, -481, 221, -1325, -627, 18, 301, -98, -325, 74, -473, -748, 202, 6, -38, 285, 18, 530, -143, 210, -109, -463, -804, -136, 327, 241, -129, 1111, 151, -1176, 443, 307, -474, 539, 250, -85, 390, -577, 382, -378, 707, -12, 1396, -458, -411, 633, 521, 8, 500, -156, 177, -503, 1, -361, -251, -498, -393, -280, -29, 312, 698, -246, 652, -566, 876, 963, 832, 490, 159, 235, -78, 170, 1169, 481, -2385, -1554, -145, 580, -425, -409, -190, 268, 285, 569, -21, 125, 341, -447, -1419, -763, 51, 111, 318, 1182, 702, 568, -232, 199, -15, 880, -82, -622, 350, -32, -20, -187, 105, 289, -396, 84, 217, -12, -481, 173, 102, -636, 7, 252, 203, 60, -835, -662, -135, 424, -453, 343, 87, -92, -498, -258, -365, 395, 284, 85, -670, 570, 600, 280, -635, -933, -52, 454, -233, -219, -70, 69, 710, 44, 480, 821, 297, 508, 483, -451, 421, -427, -128, -823, 245, 606, 859, -88, 187, 559, 1483, 473, -513, -250, -499, 1787, 406, 23, -777, -940, 276, 76, -302, 541, 659, -106, -150, -1587, -88, 259, 393, -477, -520, -3, -127, 393, 85, 315, 597, 1265, -223, -252, -548, 332, 949, 3007, 793, 1205, -805, 473, -216, 239, 123, 1165, 2448, 524, 72, 47, 79, 243, 387, -293, 304, 43, 514, 454, 233, 212, 148, 210, 89, -424, -60, 287, 145, -766, -608, -510, 80, 200, 230, 32, 452, -748, -802, 496, 392, -744, -268, 167, -263, 606, 171, -1081, -84, 412, 168, 859, 443, -413, 104, -444, 10, -1004, 180, -452, -772, -136, -360, 688, 121, 955, 482, -400, 259, 1493, 122, 178, 651, -7, 393, 157, 4, -946, 789, -551, -766, -958, -274, -107, -360, -1891, 374, 17, -85, 739, 1039, -138, 906, 83, -4644, -1315, -775, -934, -469, 485, 1713, 95, 554, 283, -784, -245, -1275, -1152, -524, 1164, -156, 506, -598, -208, -35, 242, 37, -242, -259, -403, -35, 477, -537, -161, 807, 84, 593, 377, -106, 83, 106, 167, -457, -829, -168, 530, 669, 883, -164, -29, -313, 397, -116, -748, 191, -311, -70, 528, -1153, -633, -838, -302, -907, -885, -311, -356, 336, 446, 196, 504, 471, -1494, 1237, -894, -1012, 61, 431, -1374, -188, -538, -291, -600, -1128, 1016, -475, -698, -38, -237, 194, -208, -44, -386, -383, -508, -548, -385, -4189, -1967, -538, 336, -525, -188, 61, -78, 1281, 435, 411, -778, -283, -689, 119, 215, -212, 602, 128, 513, -223, 319, 1578, 274, 922, -324, -68, 457, -384, -236, 440, 110, 263, -422, -388, 668, -285, 1086, 779, -46, 14, 1466, -614, 7, -688, -17, 931, 555, -1800, -718, 408, 229, 609, 400, -128, 246, 190, 662, 227, 8, 100, -320, 283, -1152, -1023, -889, 1074, 269, -3033, 276, -81, -191, 401, 1394, -643, -280, -170, -118, -48, -625, -13, -1000, 172, 734, -267, -139, 141, -299, 283, 642, 52, 196, -482, -139, -247, -194, 394, -1080, -701, -183, -109, 159, -841, 369, 809, 178, 425, 399, 4026, 1066, 697, 451, -547, 389, 733, 487, 189, 29, 387, 2372, 281, 826, -163, 168, -347, -1657, -564, -809, -237, 605, 352, 1525, 166, -371, -386, -169, 413, 429, 445, -92, -653, 552, 2387, 489, 533, 32, -352, -491, -544, -35, 142, 267, 114, -77, 337, -264, 508, -262, -757, -49, 984, -8, -1, -108, -6, -273, 954, -101, -235, 1019, 1410, -590, -414, 303, -188, 489, -479, -287, -216, -103, 312, -509, -109, -133, 118, -952, 5945, 719, 880, 222, -254, -43, -114, -471, -1787, 4, -306, -57, -482, -876, -34, 116, 690, -316, 62, -236, -377, 176, -350, 324, 94, -436, -1239, 822, 216, -363, 574, 662, 200, -740, 230, -368, 387, -485, -185, -37, 654, 1640, -246, 1103, -573, 217, -166, 1098, 370, -161, 38, -139, 119, 63, 322, 707, -245, -3973, -713, -1338, -707, 80, 494, 153, 371, -1241, 5, -1039, -170, -123, -318, 22, -552, 356, 1070, 239, 378, 623, 700, 899, 134, -131, 323, 3059, -1587, -378, 304, -286, -511, 217, 48, -644, -257, -270, 1753, 178, 30, -1910, 714, -337, -523, -2, 155, 644, 756, 460, -1089, 4388, 1036, -548, 1665, -149, -180, 253, 552, 49, 88, -235, -368, 722, 171, 836, -724, 410, -40, 395, 873, -573, 520, -986, -755, -539, -138, -391, 64, -63, -1088, 540, -450, 151, 228, -244, -59, 1035, -152, -78, -101, 80, -369, -253, 183, 407, 163, 36, 96, 20, 242, 206, -112, -867, -72, 115, -44, 778, 102, -150, 597, 111, -405, 332, -757, 227, 230, 197, -877, 132, 559, -126, 88, 179, 220, -29, -84, 393, 316, -357, 360, -594, 192, -100, 480, 249, -321, -271, 53, -24, -261, -75, -485, 474, 271, 270, -635, 179, -7, 397, 324, 526, -832, -392, -310, -121, 711, -21, -431, 405, 33, 49, -397, -645, -371, -188, 197, -152, -76, -292, 548, 68, 270, -24, -77, -145, 294, 111, -182, -37, 496, 164, -213, 180, -473, -89, 324, 342, 783, -880, 769, 437, 75, 1460, 1964, 1, -121, -104, -260, 492, 617, -569, 366, -46, -99, -353, -748, -1720, 1451, 1597, 31, -74, -522, -360, -879, 530, -220, 565, 33, -928, 137, 667, -587, 887, -25, 265, -250, -365, 445, 109, 78, -185, -383, -232, -961, -105, 674, -370, -62, -296, -279, 633, -285, -1996, -286, -290, -287, 526, 40, -306, -37, 250, 530, -1076, -330, -85, 113, 261, 190, 746, 81, -650, -432, -89, -186, 524, -363, -50, -1116, -97, -59, 115, -526, 1566, 612, -408, 242, 205, 1322, 100, -768, -400, 1152, 583, 1488, 528, -145, 159, -469, 354, 498, 204, 3369, 353, 159, -208, -630, -236, 32, 548, 676, 34, 450, -613, 183, 2361, 35, 52, -824, 1603, 380, -331, -85, -717, -1541, -451, -481, -50, 15, 995, 1086, 130, 534, -168, -1950, 553, 15, 95, 154, -167, -225, -663, -669, 120, -107, 2286, 219, 259, 209, -1300, 1546, 1532, 368, 302, 692, 64, 740, 58, 372, 29, -322, 421, 422, -903, 197, -235, -533, 288, -30, -609, -704, 1473, 389, 461, 174, -52, 263, -616, 139, 426, 542, -127, 29, -947, -632, -64, -989, -542, -137, -352, 438, 77, 254, -57, 2011, 423, -479, 177, -392, 480, 850, 517, 85, -1146, 745, -665, -553, 693, 318, 153, 253, -759, -732, -200, -919, 113, 140, -221, 101, -862, 934, 456, -41, 354, -233, -122, 979, 251, -9, -2080, 858, 492, -179, 983, -137, -157, -130, 285, 78, -249, -243, -653, -750, 621, 5813, 816, -380, -75, 513, 245, 1252, 715, 1560, 1104, 198, 1271, 453, 303, 1476, 448, 214, -3, 655, 714, 180, 15, -312, 105, 1065, 462, 1240, 1116, -647, 197, -62, -628, 452, 175, 358, 34, 199, -1758, -24, 206, 554, -267, -803, 1153, 119, -594, -493, -237, -791, -825, 354, -1645, -272, -138, 115, -513, -666, 912, 826, -152, -981, -375, 363, -299, 467, -849, -654, 485, -212, -44, -380, -270, 1320, -34, 233, -140, -334, 98, -187, 102, -261, -1302, -251, 593, 769, 287, 890, -260, 328, -294, 211, 8, 1647, 545, 600, 247, -681, 198, 652, 322, 59, 2110, 203, 311, 417, -453, -743, -199, -49, -187, 64, 202, -74, -437, -314, 384, 665, 36, 647, -358, 208, 177, 124, 67, 130, 858, 50, -365, -162, 185, 1077, 192, 2810, 2853, -256, 2516, -421, -217, -246, 69, -757, -799, 1184, 889, 588, -105, -473, -779, 615, 340, 86, -265, -464, 575, -961, 210, 432, 611, 853, -240, 373, -170, 473, -117, 608, -54, -119, 918, 98, -1613, 834, 599, 158, 289, 986, 146, -506, -140, 302, -439, -3982, -405, -657, -733, -191, -154, -592, 342, -156, -364, -79, -266, -332, -125, 883, 111, -1130, -146, -1056, 255, 156, 445, 101, 394, -865, 559, -155, 284, -610, -1004, 343, -759, -352, 1431, -170, -123, 1009, 1100, -262, 539, 547, -278, -414, 168, 1113, -1257, 113, 344, -142, 863, 455, -2323, -133, 1280, 216, 435, -1341, -846, -1042, 38, -937, 275, -441, 537, -275, -363, 319, 249, 130, -450, 767, 252, 19, 66, 674, 62, -475, -271, 997, -83, -128, 1043, -494, 82, -706, -746, -153, -119, 647, -1627, -894, -954, -664, 378, 232, 132, 1264, 416, 91, 572, 915, 536, -630, -559, -271, 306, -578, -754, 195, -1012, 65, -931, 45, -58, -605, 1075, 1010, 119, -245, 15, 307, 524, -604, -263, 1527, -200, 662, 68, 569, 213, -27, 79, 854, 317, -294, 488, 369, -3262, 713, -218, 53, -2827, -148, 916, -258, 321, -234, 936, -565, 989, 185, 591, 129, 1149, 716, -626, 415, 213, 523, -323, -211, 420, -559, -128, -11, 33, -568, 694, 204, 558, -112, 722, -26, -738, -1260, -891, 201, 440, 415, 601, 399, 97, 1109, 1098, 220, 836, 98, 947, -158, 62, 504, -251, 337, 475, 217, 441, 477, -408, -192, -97, -125, 20, 113, 484, 966, 54, -185, -784, 38, -494, 998, 123, 183, -688, 412, -874, 477, -436, 499, 829, 674, 1992, 49, -82, 597, 368, 425, -128, 426, -447, -113, -1363, 290, 719, -564, 426, -685, -372, 1629, 668, 605, 247, -2, 379, 819, 706, 319, -542, 91, -95, -50, -1304, 414, 17, -243, -237, -374, -580, 235, -116, -242, -721, -964, -128, 950, 449, 848, -144, -248, -564, 279, -734, 202, -887, 476, -345, -964, -330, -444, 171, -859, -125, 224, -423, -348, 376, 6, -125, -600, 109, -295, 19, 255, 583, 150, -354, 935, -831, -103, -363, -176, 600, 56, -62, 412, 1093, -395, 848, 876, 1160, 709, 383, -241, -75, -330, 468, -3198, 86, -510, -225, -3268, -265, -598, -231, -85, 550, 900, 13, 512, 151, 841, 263, 1293, 405, -67, -90, 439, 518, -2352, 47, -155, -641, -385, -4, -401, 706, 97, 700, -814, -156, -79, -103, -61, -526, -9, -172, 278, 64, -535, -630, 1280, 320, -178, -1183, -1558, 21, 11, 25, -294, 545, 468, 523, 407, 885, 52, 229, -376, -510, -324, 129, -539, 650, -1359, -84, -207, 0, -446, -224, 386, 911, 330, -422, -100, -869, 2255, 372, -433, -335, 147, 599, 810, -21, -941, -201, 547, -69, 138, 187, -221, 534, -266, 149, 1126, 4, 424, 190, 455, -578, -17, -33, -30, -782, 403, 1157, -194, 833, -340, -754, 105, 263, 358, 289, -119, 507, -97, 230, -773, 315, -119, 212, -387, 410, 131, -53, 1111, 426, -73, 889, 904, -301, 554, -515, -571, 42, 84, -563, -65, -216, -37, -437, 852, -797, 903, -109, 882, -152, -2138, 249, 396, -509, -495, -2090, 602, 90, -238, 35, 191, 147, -519, -640, -442, 1040, 133, 81, 941, 437, -4, -493, -499, -382, -475, 529, -121, -2121, 579, 3805, 1387, 414, 2059, 489, -358, 211, 672, -1049, 37, 316, -46, -599, 65, 13, 928, 12, 162, 493, 523, -1827, -494, 669, 581, -668, -572, -62, 878, 819, 211, -182, 846, 748, -189, -528, -453, -165, 1014, 1432, 58, -376, -514, -799, -731, 30, 149, 664, 522, -863, -723, -83, 36, -184, 905, -483, -492, -110, 38, 421, -307, 247, 342, -72, -1033, -272, -914, -136, 31, 962, 398, 172, -538, -1088, -641, -715, -183, 707, 1064, 981, -165, 546, 846, -438, 694, 210, -565, 426, 110, 821, 804, 198, 99, -22, 452, 156, -432, -448, -242, -136, 261, 766, 407, 429, -45, 508, 102, -317, 399, -284, 50, 760, 79, 163, 99, -755, 1952, 814, 280, 107, -370, 1262, 1737, 753, -458, -996, -243, 378, 311, 1163, -19, 990, 607, -1397, 475, 846, -875, -920, -323, -294, -682, -200, 17, -678, -157, 716, -400, -2247, -383, 934, -224, 299, -557, 178, -411, -55, -748, 1041, 842, 652, 197, -30, -714, -930, -722, -529, -288, -123, 644, -3433, 502, 241, 722, -66, -139, -135, 796, -549, 60, 308, 218, 340, -112, -62, -718, -281, -373, 431, 163, 404, -507, -121, -1517, 1183, -171, -433, 316, -561, 99, 206, -206, -1014, -32, -648, -146, -436, -213, -161, 347, -3071, -62, -365, 507, -1068, 183, 460, -1916, -1009, -409, -527, 327, 750, -833, 264, 333, 307, 447, -54, 487, -56, -336, -194, 74, -520, 754, -305, 973, -439, -313, 163, 10, -205, -111, -2639, -136, -1263, 312, -1001, -513, -101, 571, 615, -160, 912, -17, -377, 457, 99, 222, -711, -55, -703, -126, 12, -413, -464, -769, 311, -613, 268, 633, -1067, 85, -548, -263, -139, 190, 476, 70, -91, -613, -899, -66, -121, -400, 405, 192, 233, -861, 36, 392, 857, -379, 293, 124, -266, 197, 244, -1263, 713, -84, -227, -4, 808, 191, -126, -684, 694, 179, 153, 146, 93, 11, -166, 227, -577, 1030, -428, 1142, -400, 843, -112, 757, 542, 147, -181, -218, -5, -238, -983, 107, 773, -353, 598, -38, 167, -68, -218, 174, -639, -397, 243, 33, -232, 325, 262, -72, 829, -316, 17, 695, 563, 108, -168, 17, -293, -114, -372, -517, -181, 209, -467, 18, -389, -230, -251, -461, -331, 80, 280, -1043, 59, -239, 166, 122, 3, -424, -873, -288, -224, -599, 225, -266, 985, -47, 504, 231, -422, -294, 886, -466, -885, -2223, -663, -907, 311, 234, -675, -373, 846, 405, -5, -1034, -46, 701, -319, -120, 80, 487, -401, -415, -452, 159, 107, 474, 285, 292, -237, -590, 1115, -341, -352, -801, 722, 518, 161, 312, 1119, 253, 410, 442, -12, 385, -180, -76, 676, 1018, 207, 365, 427, -218, 66, 24, 658, 248, 863, -47, -277, 87, -133, -60, -837, 568, -162, 172, 513, 106, 270, -688, -75, 1830, 181, -125, 177, 587, 71, 156, 199, -315, 19, -441, -194, 203, -863, -125, 1841, -262, 43, -496, -804, 438, 105, -1320, -301, 904, -73, 40, -654, -167, -168, -118, 1078, 37, -4063, -419, -742, -103, -763, -400, -196, -874, 974, -476, 56, 861, -575, 1122, -1392, 207, -148, -82, -380, -1636, -459, 276, -64, 1, -225, -666, 246, -569, -1580, 76, 389, 472, 432, -1660, -814, 505, 97, 123, -212, -39, -306, -460, -260, -1429, 21, 47, 778, -2724, 24, -192, 502, -1797, -1650, -672, -346, 1081, 240, 308, 422, -597, -57, 144, -805, 245, -393, -120, 239, -233, 50, -452, -667, 533, -438, -154, 648, 13, -193, -601, -341, 4, -503, 169, -1867, -377, -367, -577, -675, 658, 350, 837, -13, 608, -1728, -302, 432, -715, -521, -187, -378, -146, -112, -96, 2065, -1025, 966, 838, -267, -385, 1004, -869, 854, -109, -766, 508, 144, 727, 239, 316, -216, -590, 721, -1577, -942, -500, -533, 636, -594, -178, 125, 737, -179, -226, 711, 782, -360, -1301, -955, -88, 457, 136, 464, 64, -449, 312, -277, 212, 481, -124, 331, 262, 321, -43, -879, -262, 461, 610, 136, 100, -632, 364, -2608, -48, 719, 286, 231, -215, 1024, 844, -460, -737, 1204, 612, 2, -64, 383, 134, 447, -597, -82, -361, 22, 22, -247, 37, 584, -487, 403, 215, 50, 559, 4814, -237, 2308, 2038, -199, 164, -586, -288, -390, 44, 73, 495, 32, 113, 166, 204, 672, 90, 595, -699, 11, 686, -151, 279, -563, -217, -683, -287, 22, -26, -789, 40, 108, 539, 165, -406, -254, -717, 435, -285, -440, -1091, 691, -585, -248, 222, 396, 570, -557, 738, 314, -116, -1012, 241, -733, 423, -87, -500, -154, 754, 471, -659, 196, -669, -334, 643, 1275, 1419, 957, 1437, 480, -914, -2310, 694, -391, -570, -38, -60, -95, -544, -178, 520, -24, 147, 698, -1021, -22, -165, 63, -3025, 517, -263, -49, 1307, -57, 358, -59, 87, 216, -132, -101, -557, -314, -4899, -3919, -696, 229, -399, -561, 14, 81, -639, -253, 953, 1092, -535, -972, -340, -791, 16, 194, 335, -1719, 83, 66, 370, 1211, 989, -274, 110, -477, 649, -49, -395, 558, -139, -184, -2323, -284, -382, 584, 367, -1554, -241, -712, -428, 809, 337, 595, -49, 219, -861, -716, -83, -1979, -176, -712, 1358, -771, 5, -4, -461, -6, 240, 617, 378, -60, -599, 346, 39, 64, 112, 1283, 788, 81, 752, 641, 209, 419, 85, 302, -255, 258, 472, -1434, -298, -203, -375, -867, 175, -747, -779, -239, 163, -188, 226, -40, -37, 361, -344, 97, 180, -416, -848, 512, -1476, -764, -1160, -128, -1384, -680, -447, 42, -266, 80, 142, 501, 358, 28, 1150, 369, 845, -792, 368, -472, 66, 357, 28, -278, -430, 370, 802, 189, -398, -241, 333, -134, -245, 438, 319, 377, -443, -402, 358, 390, 492, 52, -304, -581, -552, -94, 299, -243, -218, -877, 1713, 97, 862, 1438, 570, 235, -364, 603, 60, -6, 250, -386, 547, -972, -316, 913, -348, 357, 424, 946, -368, -757, 1185, 445, 214, -347, -137, -184, -974, 362, -15, 497, -976, -346, 2385, -1096, -13, -26, -573, 93, -433, 720, -16, -58, 49, 127, 585, 189, -430, -939, 162, -165, 189, 81, 211, -331, 786, -367, 259, 633, 1977, 404, 345, -215, -1135, -782, 792, -137, 509, 736, 546, -222, -348, 1885, -300, 545, 519, -332, -371, -314, 265, 583, -1135, 338, -2399, -138, 47, -725, 349, 288, -194, 429, -158, -58, 634, 1640, 144, 69, 231, -276, 348, -531, 35, -263, -797, 436, -2216, -545, 363, -812, 107, 95, 616, -81, 823, 2307, 516, -319, -633, -266, -432, 142, 99, 245, 202, -362, -86, 74, 1275, 862, 1177, 675, -51, -471, 178, -248, -830, 208, -222, -1210, 1083, 1101, 815, 428, -1770, -627, 197, 87, -1519, -718, -379, 19, -12, -668, -183, 585, -273, 336, 93, 331, -321, -114, -142, -1035, -910, -482, 765, 297, -338, -302, 20, 452, -196, 47, 345, 370, -148, -759, -167, -292, -409, 4, 1065, 231, -977, -851, 170, -792, -109, 806, 970, -99, 1205, 354, -723, -320, -606, -431, 121, 38, -1091, 176, 267, 360, 185, -134, -213, 577, 565, 223, -470, -160, -336, 1518, -82, -3753, 478, 1543, 10, 293, -1213, -790, -561, 520, -502, 665, 159, 1018, 182, 71, 720, -349, -28, -390, -338, -155, 188, 192, -660, 1082, 356, -173, 3, 371, 168, 472, -623, 425, 312, 90, -65, 555, 695, 9, 115, -723, 477, 398, 209, -211, -650, -497, 746, -51, -336, -736, 370, 391, -240, -359, 239, 405, -115, -267, -1423, 630, -312, -1247, 634, 966, -564, 215, -276, 660, 271, 514, -603, 274, 360, 511, 861, 12, -330, -787, -1432, 244, 174, 32, -1342, 31, 485, 347, -696, -674, -346, -227, 236, 12, 226, -143, -432, 9, 621, -989, -227, 646, -1114, -362, 692, 1532, -269, 14, 397, -3692, -409, -696, 572, 698, 1010, -582, -101, -167, 216, 455, 396, -213, 88, 821, -557, -640, -634, -546, -239, -375, -610, 148, -412, -110, 296, -251, -212, -516, 455, 130, 237, 290, -70, 280, -137, -792, -332, -424, 145, 566, -355, -760, -81, 178, -916, -20, -426, -571, -1040, -673, -3185, -339, 706, -575, -1277, -481, -696, 432, 1247, 797, -489, -349, -300, -561, 6, 484, 171, 234, -897, -48, 179, -866, 539, -153, 1664, 924, -50, 49, 294, 91, 694, 432, -18, -859, -1031, -480, -126, -1136, -622, -190, -610, 806, 356, -773, 177, 1573, 880, -309, 39, 103, 935, -1091, 591, 260, 1578, 210, 93, -98, -441, 331, -173, -180, -278, 229, 334, 162, 212, 95, -424, 175, -1015, -401, 170, -218, -479, 314, 155, -231, 45, 155, 48, -1523, -1073, 576, 206, 1302, -649, 844, 59, 292, -230, 772, -751, -247, -172, 530, -33, 1201, -828, -50, 139, 311, -346, 49, -860, 142, 76, 730, 197, -295, -251, -157, 192, -328, -155, 318, 529, -499, 777, -163, -212, -630, 392, -128, 966, -124, -479, -483, 316, -3, -99, -2065, -800, 684, -95, 434, 1008, 2464, -1417, 607, -492, -440, 182, -193, 781, 451, 220, 475, -531, -792, 168, -499, 309, 542, 358, 390, -1071, -349, 253, 530, 198, 146, -492, -283, 197, -1608, -217, -998, 965, 157, -550, 190, -406, -7, -482, 668, -141, 162, -478, 127, -1060, 210, 219, -165, -4, -959, -42, 72, -440, -1430, -301, -570, 318, -904, 1036, -250, 185, 323, 606, 73, 676, 511, -50, 781, -961, 247, -161, -147, -651, -689, -1161, 786, 104, 872, -121, -81, -43, -518, -131, -705, 1950, 642, -184, -122, -890, -2285, 404, -849, 267, -761, -136, -308, 1357, 1132, -377, 222, -327, 751, 430, 348, -494, -2387, -956, -114, -183, -492, -153, -514, 1016, -1344, 99, -116, 415, 228, -818, 46, 108, -69, -841, 125, -701, 127, 340, -852, -203, 1127, 214, -232, -218, -1330, -461, -884, 235, -393, 377, 1, 245, 702, 242, -868, -22, -20, 625, 608, 598, 760, -357, -431, -129, -218, 938, 471, 1068, 26, 511, -77, -729, -808, -516, 875, -479, -282, 257, -769, -731, -129, 1028, -279, 1067, -318, 1156, 612, 25, 41, -461, 423, 193, -840, 430, -1428, 699, 560, 561, -475, 68, 283, -76, -891, -914, 1270, -753, 819, 851, 481, -638, -54, -1912, 191, -539, 1476, -1408, -697, -603, -1021, -1367, -1627, 613, -662, 28, -306, -383, 414, 486, -279, -513, -263, -122, 499, 538, 156, 81, -147, -88, -68, -102, -382, -278, 1198, 434, 145, -804, -271, -667, -307, -312, -53, 532, 20, -75, 502, -245, 1021, 281, -964, -893, -206, -353, -294, -52, 1904, -53, 271, 278, -60, 26, -613, -655, 82, 801, -110, -7, 1001, 386, -3292, 290, 278, -528, -1011, 367, -127, -43, 26, 723, -1000, -392, 1001, 1985, -4, 970, -248, 566, -2447, -472, 113, -1037, -316, -71, -35, 57, -24, -228, 399, 572, -737, 55, -385, 336, 529, 32, 51, 735, 3262, 1468, -316, 398, 371, -124, 53, -165, 57, 164, 1, 357, 149, -3727, -1299, -399, 204, 65, 275, 2734, 1816, 969, -138, 1308, -526, -400, -29, 274, 813, -443, -192, 292, -545, -718, 365, 1716, 1030, -163, -515, -93, 407, -213, 442, -391, -1029, 451, -4, -1, 34, 270, 197, 25, 183, 1186, -943, -139, -1328, -320, -390, -584, 182, 696, 660, -111, -410, 27, -76, -171, 366, -133, -239, 129, -178, -658, -239, 823, 1388, -256, -462, 749, 255, 502, -1717, -211, 218, -883, 201, 587, 129, -23, 433, -99, 547, 1671, 588, 553, -337, 356, -279, -274, -4465, -302, -597, 1881, 1006, -187, 356, -566, -202, 696, -173, 404, -111, -279, 1477, -314, -850, -1005, 254, 1272, -74, 51, -410, 662, -391, 283, -56, 112, 751, -117, -490, -287, -546, 721, 479, 16, -384, 204, -320, 359, -86, -544, -368, -74, -208, 516, 897, 164, -109, 696, 913, -529, 122, 286, 59, -487, 843, 1478, -300, -1309, -412, 712, -181, 308, -51, -328, -88, 1256, -230, -106, 1644, 584, -93, 124, -190, -574, 117, -273, -509, 706, -6, 37, 345, 570, 1034, 660, -19, 313, 64, -794, -1083, 486, -713, 2684, 199, 1255, 1118, -810, 396, -1178, -56, -545, -825, -50, 32, 29, 243, 210, 1368, 328, 129, 248, 91, -349, -330, -648, 315, 205, -949, -738, -1287, -726, 2331, 548, 64, -132, -124, 225, -357, -67, 141, -379, 168, 39, 919, 817, 1274, 224, 395, -33, 142, -185, 183, 192, 40, 146, 248, -664, -366, -40, 754, -521, 420, 848, -107, -1098, 419, 607, 488, -2723, 758, -1873, 481, -251, 398, -65, 403, 0, 516, 414, 187, -1321, 398, -252, 169, -55, 2038, 248, 321, 1177, 580, 269, 214, -217, -819, -1561, -381, 359, -629, 112, -102, -63, 21, -387, 519, 178, -34, -35, 1328, -96, 520, 63, -12, 72, 390, -1295, 257, 426, -36, -960, 220, -975, -2070, 153, -318, -1575, 229, 81, 399, 327, 1800, 693, 806, 712, 616, -484, 1411, 200, 554, 1066, -4077, -2525, 17, -406, -688, -1477, -1577, -1768, 76, 2460, 139, -82, -104, 199, -239, -2670, 637, -704, -669, -558, 518, 403, -222, -999, -215, -400, 539, 594, 1259, -1416, -417, 525, -252, 431, 708, -20, 219, -324, -260, -774, -155, 768, 63, -452, -968, -227, -642, -619, -71, -602, -105, 141, -560, -643, -128, -1263, -927, -863, 955, 306, 400, 837, 294, -13, 301, -453, -54, 1176, 425, 529, 365, -245, -259, -284, 1499, 346, -63, -985, 584, 322, 1301, -379, -30, -521, 16, 808, 16, 478, -77, -531, -260, 82, 583, -103, -59, -963, -396, -290, 528, 400, 119, -192, 15, 795, 188, -165, 1035, 52, 784, -30, 426, 418, -499, 484, -564, -346, 412, -258, -1079, -75, 150, -292, 767, 165, 741, 824, -1057, 639, -421, -720, -736, -2, -825, 300, -1434, -801, -492, -508, 878, -308, 253, 616, 874, 513, -879, -107, -30, -206, -444, 348, 200, -5966, -582, -566, -3270, 296, -377, 27, -41, 260, -901, 402, -348, 821, -1392, 695, 487, 353, 311, 643, -111, 284, -600, -381, -2364, -346, 45, -487, -84, -1043, 168, 392, 90, 855, -845, -317, 11, 403, -487, -681, -477, -157, 131, 18, -566, -1174, -1179, -618, -15, -641, 377, -375, -119, 303, 429, 1086, -134, 516, 842, 864, -1, -556, 48, 270, 93, 203, -72, 405, 83, -4, -127, 781, 765, 2, -120, 121, 399, 41, -16, 244, 1361, -500, 77, -464, -1068, -929, 2131, 259, 806, 180, 124, -117, -1985, -479, -74, -6, -360, 848, 783, -464, -832, 891, 471, 2206, -119, 590, -512, 388, -4412, -191, -7653, -1914, -2529, -443, -170, 1339, 960, -112, 678, -652, -652, -31, -65, -284, 191, -699, -947, -722, -2073, -222, -76, -1530, 522, 333, 109, -1308, -262, -868, -146, -203, 155, -196, -1175, 278, -900, 1056, 74, -202, 154, 392, -1617, -233, -599, 168, -153, -15, 518, 383, -403, 423, 141, 23, -155, 73, -567, 456, -680, 254, -371};

const int bias = 90;

#endif
